{
  "kind": "mcts_value_network",
  "network": {
    "feature_names": [
      "is_current_player",
      "turn_number",
      "dice_roll",
      "own_total_vp",
      "opp_total_vp",
      "own_visible_vp",
      "opp_visible_vp",
      "own_resources_total",
      "opp_resources_total",
      "own_resource_diversity",
      "opp_resource_diversity",
      "own_settlements",
      "opp_settlements",
      "own_cities",
      "opp_cities",
      "own_roads",
      "opp_roads",
      "own_roads_remaining",
      "own_settlements_remaining",
      "own_cities_remaining",
      "own_longest_road_len",
      "opp_longest_road_len",
      "own_played_knights",
      "opp_played_knights",
      "own_dev_cards",
      "opp_dev_cards",
      "own_new_dev_cards",
      "opp_new_dev_cards",
      "owns_longest_road",
      "opp_owns_longest_road",
      "owns_largest_army",
      "opp_owns_largest_army",
      "own_production",
      "opp_production",
      "own_port_score",
      "opp_port_score",
      "own_expansion",
      "opp_expansion",
      "own_robber_exposure",
      "opp_robber_exposure",
      "own_prod_lumber",
      "own_prod_brick",
      "own_prod_wool",
      "own_prod_grain",
      "own_prod_ore",
      "opp_prod_lumber",
      "opp_prod_brick",
      "opp_prod_wool",
      "opp_prod_grain",
      "opp_prod_ore",
      "own_settlement_potential",
      "opp_settlement_potential",
      "own_city_potential",
      "opp_city_potential",
      "own_road_frontier",
      "opp_road_frontier",
      "own_longest_road_threat",
      "opp_longest_road_threat",
      "own_blocks_opp_expansion",
      "opp_blocks_own_expansion",
      "own_played_dev_this_turn",
      "opp_played_dev_this_turn",
      "dev_deck_remaining",
      "own_bank_pressure",
      "opp_bank_pressure",
      "own_port_fit",
      "opp_port_fit",
      "own_can_win_now",
      "opp_can_win_now",
      "phase_SETUP_SETTLEMENT",
      "phase_SETUP_ROAD",
      "phase_ROLL",
      "phase_DISCARD",
      "phase_MOVE_ROBBER",
      "phase_STEAL",
      "phase_MAIN",
      "phase_GAME_OVER",
      "own_lumber",
      "own_brick",
      "own_wool",
      "own_grain",
      "own_ore",
      "opp_lumber",
      "opp_brick",
      "opp_wool",
      "opp_grain",
      "opp_ore"
    ],
    "hidden_bias": [
      0.008408410216066252,
      -0.022008694348003427,
      -0.010818603312501476,
      0.05032228060767931,
      0.06772848174562351,
      0.02290528551810152,
      0.021995481217381596,
      0.05246041522096291,
      -0.05394207366763659,
      0.07572363053315687,
      0.003466925002382472,
      0.007749052901395944,
      -0.03144468471391417,
      0.0552687476035437,
      0.005209596232199727,
      -0.03601636482261312,
      0.026629343049966153,
      -0.010342729090974724,
      0.06352810475144324,
      0.03002858241927248,
      -0.03511001992830165,
      0.0046379865033042,
      0.025675036749118446,
      0.03217804348820617,
      -0.03387510932084728,
      -0.08104483348195529,
      0.05934956898553338,
      -0.09032144501830928,
      0.021421704028415523,
      0.0012501165621580075,
      -0.0352618739548118,
      0.09659042043357734
    ],
    "hidden_size": 32,
    "hidden_weights": [
      [
        0.10437349956196142,
        0.10464356649529687,
        -0.05326527865586279,
        -0.06512862264627071,
        0.07721143814908428,
        0.06756254958575625,
        0.04047093128205696,
        -0.024964396999178677,
        0.03751509682238795,
        0.047570086321338134,
        0.05177592651342929,
        -0.0786743053764459,
        0.01637812883856462,
        0.007234203593351845,
        0.032141283409886034,
        0.131031027599405,
        0.11210823468585249,
        -0.009108652735771917,
        0.0026571334678619613,
        -0.07086946511517342,
        -0.07710191879068948,
        -0.0860901566582263,
        0.00937174274895744,
        -0.03899325304561572,
        -0.026784751515758785,
        0.08586884968670974,
        0.012231193334683648,
        0.012799648604931824,
        -0.04176025805229389,
        -0.07879911772277431,
        -0.021671796456361622,
        -0.08198624934728255,
        0.03579890022915262,
        0.12355398393629267,
        0.04351545168475276,
        -0.05831524801149907,
        0.08758117009250528,
        0.06503662083625752,
        0.0520839739720301,
        0.09901489406363151,
        0.0773132657517057,
        0.0709472233941608,
        -0.02416577524125811,
        0.1220002626414633,
        0.1338685649660246,
        -0.049417639135549425,
        0.04426792673748271,
        0.059286355695568116,
        0.018432473453231145,
        -0.032148626021551746,
        0.00871187727914209,
        0.09552278109342992,
        -0.007425879752133354,
        0.08110696932638577,
        -0.011582865568657945,
        0.09789822010255803,
        0.0986670359411321,
        0.0010076613101553278,
        0.015275760453446533,
        0.09765893905714815,
        0.0708819328188574,
        -0.0028326684748893236,
        -0.06199156157204886,
        -0.031872734606110106,
        0.043160551796223114,
        -0.05372487830451954,
        0.09289594897342938,
        -0.05003262059317287,
        0.0870408207129961,
        -0.05511706937939678,
        0.056249068090340894,
        0.04361834596633998,
        0.0008987446686909768,
        -0.15446112372915927,
        0.03202841740860122,
        0.24005758242845315,
        -0.039800234008125324,
        -0.053678697844792705,
        0.0070445037249207525,
        0.10475822314338293,
        0.03027950631590065,
        -0.0807031055770215,
        0.07688651551476322,
        0.053267072926128076,
        0.09965865232589154,
        -0.05725235483653474,
        0.053502359906498646
      ],
      [
        -0.11476250524103543,
        0.022142936022532176,
        -0.0731265641309213,
        -0.06772697939063232,
        0.06050819421995997,
        -0.08658003743101376,
        -0.0191687742437449,
        0.08135388847546833,
        -0.0668939088446981,
        -0.03515559470748087,
        0.05640134459144489,
        -0.039868182420543394,
        0.03895958644971281,
        -0.09601678063648938,
        -0.0519639356523964,
        -0.06904096544662025,
        -0.0047555794039937085,
        -0.11002077091272253,
        0.09828825070322364,
        -0.12483582022654995,
        0.05410305348554741,
        -0.12885441285714247,
        -0.0469463420128864,
        0.045478202791806616,
        -0.06732140876702512,
        -0.059949055582807116,
        0.032379230694475604,
        -0.024206044754234244,
        -0.09400806304836236,
        0.0675134720163788,
        -0.054180502458798026,
        -0.1324711543449467,
        -0.060632392153730355,
        -0.003227653478767606,
        0.06768679818858347,
        -0.08432990981203509,
        -0.029114900969030154,
        -0.11110664718430133,
        -0.011615244154983311,
        0.0291951773999222,
        0.02194465793120608,
        0.10043190638520857,
        0.01527697588873927,
        0.03809634526568986,
        0.08301155528802215,
        0.002432348496881347,
        -0.0923727252327955,
        -0.00454094022217641,
        0.0165274198237876,
        -0.14021588191623227,
        0.002260298712200322,
        0.049623192352283525,
        -0.07832414747986344,
        0.015180649833617922,
        -0.042156578110513036,
        -0.005385930507553073,
        -0.06268703948551069,
        0.07347946821826527,
        -0.052832832586051065,
        0.028691574595088434,
        -0.032529346482493234,
        -0.10194957243354692,
        -0.007458739770724941,
        -0.07455663856700569,
        -0.09640248808013711,
        -0.07052753877044156,
        -0.08228703473980291,
        -0.08281857353675827,
        0.027102432624704884,
        0.01914921703990517,
        0.11458898987966738,
        0.09183081101817876,
        0.10460603943879385,
        0.09731761878151737,
        -0.011698048555955057,
        -0.25777584946788107,
        0.01929927276668721,
        0.023223144987539565,
        0.08141932051440928,
        0.027617316379045527,
        -0.0521383218755971,
        0.0025723210117081867,
        0.014043924762382278,
        -0.1291103498317843,
        -0.1039804469599945,
        -0.008847554071045675,
        -0.10341525627145144
      ],
      [
        0.03672094215769681,
        -0.06781471274411809,
        -0.12788139799348622,
        -0.08477395254551791,
        -0.07561813669568086,
        -0.0723990049084231,
        -0.01529362737712918,
        -0.007348458797235778,
        -0.055186135232386545,
        0.020993004125412457,
        -0.09465418468515142,
        0.07526018896569732,
        0.08282056280931491,
        0.0362240786430914,
        -0.029612386786586172,
        -0.017481465427497827,
        -0.015018705245953853,
        -0.08562484656962109,
        -0.017215216076709196,
        0.006890495225954597,
        -0.07978655752395104,
        -0.1087753185947413,
        0.05795407308808144,
        -0.04040347587399746,
        0.006351240267234826,
        0.09007642703186884,
        0.01889184793830308,
        -0.044509604465158274,
        0.08769934786009366,
        -0.055044037814931876,
        -0.10608593734910346,
        0.019850278677012737,
        -0.1196970565958358,
        -0.07469204674524788,
        0.07358027459055878,
        0.032092618650647005,
        -0.10542076676532439,
        -0.016328498606568157,
        -0.02976894205290792,
        -0.020815736052825363,
        -0.08696439773757045,
        0.019904058331186372,
        -0.121811238658311,
        -0.06789513854147598,
        -0.02300372990255565,
        0.08856022426020646,
        -0.1072797552628569,
        0.021610998946633604,
        -0.06291562779179419,
        -0.01092217294117291,
        -0.030347181957777577,
        -0.022912054952882566,
        0.05547275611015741,
        -0.02700730233970275,
        -0.11239777798650043,
        -0.0940463435778514,
        -0.09313489823401085,
        0.05789981139688979,
        0.02717424290888276,
        0.09626010549552637,
        0.024252520109813554,
        -0.10054596564568634,
        0.03121686466994188,
        0.06250992936215287,
        0.04610475937309817,
        0.004325975686277969,
        -0.0393406141417034,
        -0.00823494695351793,
        0.06253788468691714,
        -0.019308168826381502,
        0.0363424475466492,
        -0.004746789993278785,
        0.0961812120130444,
        0.09088632083072057,
        0.09139158146447077,
        -0.026391188143977996,
        -0.04299021816294524,
        -0.05875938044483757,
        0.0009580759371184508,
        -0.05803068686164536,
        -0.014236799903372186,
        0.04313005582730841,
        0.08800129761157499,
        0.005944462543400624,
        0.05827399483530421,
        -0.0882887907361485,
        -0.04324518708154481
      ],
      [
        0.15481751580360656,
        -0.05524554850537543,
        0.04661213164651636,
        -0.05625641409560723,
        -0.06275943217469696,
        0.11173266228125686,
        0.12569412354855355,
        0.045072389758365326,
        -0.05639670725700154,
        -0.012918266967238015,
        -0.0008584185804070348,
        0.051282121163670064,
        0.07670579860583526,
        0.018831308997513473,
        0.01048635626824778,
        -0.04267995507216434,
        0.05016677374265748,
        0.1053263707474793,
        0.08846646461945863,
        -0.06766209974835997,
        0.03376426557473658,
        0.07650806456162144,
        -0.03091650998213832,
        0.092462472303144,
        -0.0011662215923475788,
        0.04858256806889867,
        -0.013583741182554405,
        0.10473460719625492,
        0.08085344174079627,
        0.054681568035689194,
        -0.05061041328945363,
        -0.0017249755652792545,
        -0.03443434696054726,
        0.07311160631695918,
        0.08803325586916091,
        -0.05485518291049735,
        0.008083952658083217,
        0.003486988052760682,
        -0.002697764441933739,
        0.0626879565179551,
        0.12766182759546404,
        0.054212977924261295,
        0.032069123607763185,
        0.13961008096821326,
        -0.004186199674812091,
        0.08141796212447965,
        0.04785082151289448,
        0.09124054565920099,
        0.10548795986209719,
        -0.055426873322571506,
        0.04047857242304959,
        -0.002582774999544422,
        0.0372949537243726,
        0.11360635110463796,
        0.07164860486152266,
        -0.06507590593726768,
        0.010894865513577249,
        0.06620791053283798,
        0.08698997575378702,
        0.040069060420200545,
        0.08048266034955698,
        -0.10213906422375425,
        0.12250082366072114,
        0.04846302654637865,
        0.023439491945434515,
        0.099624978887668,
        0.09609260035628457,
        -0.08630091183701424,
        0.06697793710134128,
        0.035111216311508306,
        -0.09704738205893655,
        0.05166485514642839,
        0.018239537168764718,
        -0.14793707424688282,
        0.06434463969495911,
        0.11046733112920523,
        0.023759633028547958,
        -0.01090460922768793,
        -0.054225205048309494,
        0.030752380856532337,
        0.0018961546834943598,
        -0.05457124468617839,
        0.10658369930653872,
        -0.07989600138884612,
        -0.08782965562759158,
        0.005620472975763955,
        0.08247689063196806
      ],
      [
        0.10027315254739907,
        0.08501316023816875,
        0.08232801819574073,
        0.09032268291757728,
        0.0005822321586368651,
        -0.005312258972460437,
        0.030214762410646374,
        -0.07251283930894248,
        -0.06053108983414303,
        0.10988773206200847,
        0.005878387832559799,
        0.07021177278166543,
        0.11271067162214125,
        0.031237927963677588,
        0.04565694715832055,
        0.12093756811411596,
        0.12999878463203474,
        -0.07060824042859283,
        -0.021884913699479088,
        -0.00970566546569265,
        0.037970265351016344,
        -0.0054172697409171815,
        -0.06654387573946495,
        0.024416152472253195,
        0.111090317936946,
        -0.017233438022199885,
        0.013561750391182919,
        -0.024890703648747424,
        0.02187127683573518,
        0.12596958349572335,
        0.006445280219819256,
        0.03998402291878778,
        0.08885197858074839,
        0.07963396157334428,
        0.10817230800951474,
        -0.06847988889149029,
        0.07886064088521069,
        -0.03515746928500405,
        0.060524719809173504,
        0.08261349227816613,
        0.08358566026571153,
        -0.0037856246688644777,
        0.12483496193361689,
        -0.03855693221755806,
        0.08492839099890795,
        0.02912604554406755,
        0.016018534368443017,
        0.11882779460176289,
        0.12351023246906394,
        0.020714681789818484,
        -0.01497878999620139,
        -0.04083064373114835,
        -0.008289415918918824,
        -0.04040965961671753,
        0.012164042130289852,
        0.14200697038429294,
        -0.05237233814471065,
        0.0914333434422895,
        -0.01648588913357618,
        -0.01436018325021274,
        -0.0215498361269381,
        -0.08939487730376941,
        0.022350311825495777,
        -0.06910996135068452,
        -0.011922139027887439,
        -0.00922193140687592,
        0.10930792392818318,
        0.08885904976744607,
        -0.012275176125999465,
        -0.014358143431416002,
        0.06543443035622819,
        -0.036757967363212254,
        -0.08470554498090299,
        -0.052776345134432155,
        -0.06566973719795184,
        0.17117951069857854,
        -0.026697329505794547,
        -0.021936607283469342,
        0.06760354572812075,
        -0.031648858700524876,
        0.08067856390811223,
        0.04268801962023454,
        -0.008380924476347567,
        0.076193678912561,
        -0.010399436941297123,
        0.09812952615666011,
        0.09947899019077189
      ],
      [
        0.023592056019376608,
        0.02735827683751742,
        0.09881663385455945,
        0.036996843354864264,
        0.0320709257711798,
        0.07159932175427919,
        0.06508979315100447,
        0.016400196471712248,
        0.09607898768776033,
        -0.05092709262389949,
        0.025236497135782493,
        0.027242609870873322,
        -0.03933179682948588,
        -0.03536060020152958,
        -0.0885272074366256,
        0.08974362876920111,
        -0.08286383415469875,
        0.025173616092992422,
        0.11514721889968002,
        -0.030096163004387055,
        0.09604152782849622,
        -0.1164644867791389,
        -0.08902107616007349,
        -0.06053419795511431,
        -0.03894379679011627,
        0.09611856238869183,
        0.07873631903160852,
        0.05532751782013009,
        -0.024664104220430347,
        -0.02289766809933892,
        -0.01847340725855802,
        0.006792070456834803,
        -0.038320949118568204,
        -0.0658688896744987,
        0.04174958482373538,
        -0.06879454935654808,
        -0.030738763013255413,
        0.07683389547332271,
        -0.07306054941908083,
        -0.11746639405131717,
        -0.10199774583021898,
        -0.04250524750630551,
        -0.030564704206954892,
        -0.09844484919893542,
        -0.011193962053109857,
        -0.03025382077210086,
        -0.09494632595623523,
        -0.006166608455282829,
        0.02811143435888955,
        -0.07297853261709186,
        0.07692146747859362,
        -0.12600197627280818,
        -0.06957717399568598,
        0.0708568744779602,
        0.00010983821954993711,
        0.07840667165123627,
        -0.08159059222064406,
        -0.03535993872205617,
        0.06761582054643377,
        -0.0319569078840747,
        0.04374321210665932,
        0.023347652366415787,
        0.007815535842913977,
        0.08326502587426403,
        -0.02601570009055057,
        0.0035282826288734435,
        0.03045828900370015,
        -0.0356778252840483,
        0.07069964217961358,
        0.03229845235279586,
        0.03729280043460238,
        0.008162111848674545,
        0.10257713912993441,
        0.32640171480920244,
        0.072086987192689,
        -0.239891889368178,
        -0.018658950777119283,
        -0.03411835257378324,
        -0.08559543898295933,
        -0.11582055089990778,
        0.07507654525842279,
        -0.07957536404537717,
        0.10168554822346539,
        0.01216381768359431,
        0.08998751092922307,
        -0.07621865961284209,
        -0.05290398097624208
      ],
      [
        0.08491364783653862,
        -0.09226717325376285,
        -0.07693592769183957,
        -0.0202232000178578,
        -0.05876486496046945,
        -0.06172243515071858,
        0.04039384520961153,
        -0.06405940498203486,
        0.0898726717800964,
        0.05084737821906333,
        -0.0924212493896139,
        0.08322892873255591,
        -0.0495590877194609,
        0.01226396591123433,
        0.018091030459633502,
        -0.06795590644508065,
        -0.0009119106769524719,
        -0.07959685918364687,
        -0.04053638994263751,
        0.0942487872611092,
        0.07583555536462158,
        0.0001632915147995348,
        0.05991480533757585,
        0.07936843387781377,
        -0.0641937256599772,
        0.00794997729589013,
        -0.08948748675031215,
        -0.08111673620377131,
        -0.09341410074292819,
        -0.051593121447835275,
        -0.048610919988645473,
        -0.07141206105724081,
        -0.009862841563113223,
        0.035395793222098584,
        0.09656586683228259,
        0.0990053447630319,
        0.049538431253315814,
        -0.003240703146327452,
        0.1261729342335074,
        -0.09944658393667727,
        -0.08310288960665546,
        0.069372051750774,
        0.039302265781522364,
        -0.0735641269033548,
        0.003834144047580933,
        -0.021277262995573136,
        -0.013917272247669407,
        -0.02361057107521582,
        0.021319842571521294,
        0.06696096979640793,
        0.07467483755946727,
        0.0013627606696825741,
        0.003911505723906295,
        -0.04922726913810377,
        0.05064416144305976,
        0.10788289576538347,
        -0.049967345364464746,
        0.036377536297501636,
        0.046716568776376574,
        0.03717715575923536,
        -0.14150924170172116,
        0.010941244507191993,
        -0.05887934604964224,
        -0.06400557436809577,
        0.011263285565598554,
        0.06238138797704252,
        0.04436787227938024,
        0.053970206605181203,
        0.041475603585079894,
        -0.01550029492919146,
        -0.06534964825950604,
        0.057582765121612374,
        0.06834091943823364,
        0.559578053747494,
        0.020750440585236535,
        -0.5844734413803213,
        -0.06432896848743844,
        -0.0886727330463958,
        0.027327408945566397,
        0.02096730085043169,
        -0.03666156317039349,
        0.11815894416315244,
        0.09497450924900004,
        0.06759384926866635,
        -0.011081356352733123,
        -0.03309171165433367,
        -0.07075604860558164
      ],
      [
        0.12045889682008676,
        0.050742019356895006,
        -0.011116999191774656,
        0.10122843235417554,
        0.03265646985732474,
        -0.0050120899994601665,
        -0.0007918522765129463,
        0.04970128825764669,
        0.003620798863157481,
        0.052539525711789825,
        -0.04477238857635723,
        0.06565554071433465,
        -0.025263782974633456,
        0.0935359348058923,
        -0.04973339980594935,
        -0.019255931111705545,
        0.03227164063050315,
        0.013116439555213919,
        0.03442365480932818,
        0.1348390789943641,
        -0.051315207419388255,
        0.0765126467658051,
        0.044956097812358736,
        0.06307464801436666,
        -0.0059020611653722195,
        -0.007658218451198831,
        -0.032246474554066214,
        -0.005659957569658325,
        -0.047262948428773724,
        -0.03936440622238261,
        0.007245020643845654,
        -0.06297269367303586,
        0.035992273983248946,
        0.05477271192141727,
        -0.03957058474911517,
        -0.06119003988141524,
        0.023858058537900746,
        0.07973821822356941,
        -0.055694089087574616,
        0.03866538406098818,
        0.048330544335605984,
        0.0901263488705604,
        0.07286498816441637,
        -0.019335584846559794,
        -0.05182494979646655,
        0.09009155341135738,
        -0.028491128058793107,
        -0.07258032217089529,
        0.09553306102364208,
        -0.04413706175109477,
        -0.035458010438574286,
        -0.029424013600433237,
        -0.04334483940762668,
        0.05423320627771188,
        0.007160949323525387,
        0.01975498850886629,
        -0.015174589948757523,
        0.08193604206404355,
        -0.09839624522521766,
        0.018947730826269788,
        -0.07293710533387307,
        -0.07392242210923032,
        0.06868100391889613,
        -0.031186705510792893,
        -0.0921719280588136,
        0.013589328972414078,
        0.10208520565152392,
        0.0276561824869235,
        -0.0008827518503981215,
        0.05451694405814587,
        0.08257950093709963,
        -0.07376595382363998,
        -0.042450579696911725,
        0.13979826850773272,
        0.09010304005154887,
        -0.03792711254530669,
        0.04307610006767234,
        0.08137571394608907,
        0.02478412152686763,
        0.04502781443249776,
        0.0037417710048927447,
        -0.05703889807736224,
        -0.05576822620208767,
        -0.0886722407161577,
        0.04355173645830919,
        -0.0699611954651973,
        0.034371433510865995
      ],
      [
        -0.07648041151546456,
        -0.006908637791661838,
        0.04282235567600537,
        -0.07873074548671295,
        0.07683890932353195,
        -0.09611763093170127,
        0.05886876199969301,
        -0.194590282631168,
        0.01763091760044788,
        -0.1383423797076555,
        -0.10114779630938994,
        0.17767094276166123,
        -0.05320390406559834,
        -0.22007743976753696,
        0.2402970989622774,
        -0.12116019585081174,
        0.13624519870040855,
        -0.037548170647823724,
        -0.1347023944572131,
        0.07643915140650981,
        -0.04556941487500097,
        0.10785039694203928,
        -0.09422525287841263,
        0.18599527802686347,
        -0.05250847662807255,
        -0.14979702270941408,
        -0.0006995579124686145,
        -0.07840785990961717,
        -0.10284585774971239,
        -0.001823174784351163,
        -0.20106594025539115,
        0.32136914982714077,
        0.007712083045885634,
        0.16511224497168547,
        -0.20330497820046425,
        -0.03813329683649796,
        -0.12247936225467934,
        0.07790912381202951,
        0.014992887915044132,
        0.002457570046268867,
        -0.009458287884572748,
        -0.08314105816652471,
        0.06955204750858726,
        0.23210727370548245,
        -0.355320820058782,
        -0.22738370723178555,
        0.3144207147627617,
        0.19398441198078506,
        -0.43562658966430623,
        0.5226859747670026,
        -0.11647663481025855,
        0.19951775373287217,
        0.032811632672749495,
        0.035744631778970026,
        0.11538113233876547,
        -0.10886329450902055,
        -0.00406383568487928,
        -0.0029265267415187857,
        -0.03100119055461716,
        0.01316169721423344,
        -0.11754120506937572,
        0.036480820262085746,
        0.08572474054994428,
        -0.003994739850724496,
        0.08949546643951506,
        -0.3218258006312586,
        0.004902467196894682,
        0.01591497836565607,
        -0.004162644883828661,
        -0.053308232718918123,
        0.05978980116137255,
        -0.07137055395927236,
        -0.09624862300732444,
        -0.05587588302017374,
        0.09867162773397906,
        0.12922472824065795,
        0.03662849411379152,
        -0.05448934345694884,
        -0.0012673055221142891,
        -0.14497090622017597,
        -0.10042441386484309,
        -0.08676189762433768,
        0.005319711167163786,
        0.08451964392651512,
        0.047227463657667466,
        -0.13650601148944963,
        0.11395942962881553
      ],
      [
        -0.016671706252883244,
        -0.03340123890480319,
        0.01349722742472467,
        -0.060876084154234546,
        0.007983231595097721,
        0.036124968776896915,
        -0.022214752665810446,
        0.03802908270193565,
        -0.07181524941707063,
        0.020868241123251686,
        0.07323469084129107,
        -0.0024437345017439154,
        0.14289089150359952,
        -0.037068569267937994,
        -0.015357304512688569,
        0.03885253522924399,
        0.011027363010840625,
        0.12763798835608692,
        0.0719487266746121,
        0.0363540429591271,
        0.02379847027110338,
        0.014717499749480034,
        0.12515124858908497,
        0.07043907642982952,
        0.03445367722152948,
        -0.0646379731240129,
        0.026839223942219617,
        -0.07872313526238814,
        -0.011131930229248306,
        -0.06301932695954938,
        0.08087646589327882,
        0.10562268847773093,
        0.10861723853576076,
        0.07574659295309608,
        -0.03358777182424019,
        0.007136090551457704,
        0.000990951064286105,
        -0.013661146859081999,
        -0.015235255562326425,
        -0.05422597214495185,
        0.09465039240847647,
        0.11140742855448417,
        0.11406945148926838,
        0.0596222667742608,
        -0.04671738110351663,
        0.00046969547438230493,
        0.08214399306365848,
        0.14651776843843164,
        0.06524156277747366,
        0.003248933536951202,
        0.06071305679973753,
        -0.04691750149547792,
        0.04485920249571676,
        -0.012384643222285538,
        0.13051939514578395,
        0.034980588377339895,
        0.05592228207887721,
        0.02647508234224948,
        0.012458949821798335,
        0.002961257035202746,
        0.10679003010527885,
        0.053897860610570864,
        0.03374725112902287,
        -0.005163594194849848,
        0.0833476450236703,
        0.0841780472514186,
        0.055777279207053276,
        0.09403522987521776,
        -0.08082137946383783,
        -0.014413171317693898,
        0.013379389136287397,
        -0.009599075360527292,
        0.0979793079395412,
        0.16240812101106256,
        -0.02314911253554651,
        0.0839087619514893,
        0.05620797212380594,
        0.034609278611010354,
        -0.031821256109355,
        0.07822248028662776,
        -0.02942472904539294,
        -0.06790259544348376,
        0.04201527330922494,
        0.03870508112977253,
        0.0013734463186155265,
        0.012923763134197748,
        0.11212131323731984
      ],
      [
        0.06874926738593155,
        -0.016461793024584736,
        0.06526128274208495,
        -0.018756042567993646,
        0.03487864862995868,
        -0.011770722171565882,
        0.13736831249936318,
        0.019458706487129846,
        0.042875280648352505,
        -0.06674572211153548,
        -0.02208846103235784,
        -0.04125339588338075,
        -0.04796670092257705,
        -0.15385494712006678,
        0.20664397105765098,
        -0.08537976155115015,
        0.10877790339725099,
        0.1091886949673416,
        -0.12038586284081529,
        0.14640197167912083,
        -0.09654679902921388,
        -0.024747808716485648,
        -0.06480543880729062,
        0.06170056515876781,
        0.09079966571860607,
        -0.04178172332194839,
        -0.08409544510686624,
        -0.10186348985947564,
        -0.135330816787379,
        0.04028750693120386,
        -0.09084606749699106,
        0.08739827082851719,
        -0.038545508173166945,
        0.05152378066160276,
        0.01397372495520077,
        0.07623556501420231,
        0.05961487201300669,
        0.055092000938170405,
        0.04416760110808207,
        -0.029143849480601412,
        0.033720012099438014,
        -0.13512509384603044,
        0.008317122578879529,
        0.1575906867171405,
        -0.15908890804891562,
        -0.0509194747873743,
        0.13747199835648516,
        0.06070619953975856,
        -0.197327324249365,
        0.28810789468491926,
        -0.1039522624735793,
        0.1373548385332639,
        0.11325130941297182,
        -0.08008185992615471,
        -0.030735771434911487,
        0.02146589093725608,
        -0.013431967117347737,
        0.010499791646586643,
        0.01759419651059605,
        -0.085913108004692,
        0.04594936974520757,
        0.018496337623948787,
        0.028038369481072817,
        -0.09630973236504409,
        -0.013329170782728024,
        -0.14435943089141423,
        -0.022659935585993655,
        -0.07020778546261118,
        -0.059131800483024806,
        0.035967678625159295,
        0.09815213166394816,
        0.07275632377137874,
        0.02436854157535001,
        0.09104741299739336,
        -0.0775044365355806,
        -0.0891338331714264,
        0.04309531994947246,
        -0.1137820719492744,
        -0.14327551098244323,
        0.04309131602961386,
        -0.07547692917698788,
        -0.1364378032573248,
        -0.06920968102663225,
        0.1330723193327448,
        -0.12523448604717244,
        0.047659849360154355,
        0.014975101138064462
      ],
      [
        0.022571240323923512,
        -0.015700865238885996,
        -0.01273930604608391,
        0.12663315241021708,
        -0.13611366911696351,
        0.10327433549775501,
        -0.00900615568796379,
        0.048681443170064634,
        0.09354123436091544,
        -0.010274040162363962,
        -0.04941372971102456,
        -0.07152415836399095,
        -0.02595501427779502,
        0.14685559353612637,
        -0.14448930496578846,
        0.11022898834767177,
        -0.14478949431659857,
        -0.13946746289868067,
        0.15819864457910965,
        -0.13588222827867014,
        0.03536078685534361,
        -0.149452568008029,
        0.11015718116109965,
        -0.11218866484831584,
        -0.07389840075932798,
        -0.07058426911988179,
        -0.029602430999409065,
        0.059973659419248794,
        -0.08986383548241517,
        -0.06588027848700287,
        0.17577515683148698,
        -0.19131793740780365,
        0.07669430476430673,
        -0.03908039611433064,
        0.15375328099880792,
        -0.023846069014457582,
        0.1120209533459934,
        -0.12732497017942257,
        -0.08681764358584003,
        -0.14378989352863192,
        0.030008368471867244,
        0.06233366190610957,
        0.039465070859524415,
        -0.0020861327379243224,
        0.29246480819673104,
        0.16035615196238634,
        -0.18346882389111446,
        -0.02865999125781365,
        0.26086835051279533,
        -0.39616489999930615,
        0.0681104272574212,
        -0.17060300165840941,
        -0.11814121997056384,
        0.04915948056182241,
        0.03221775587200144,
        0.1451406382452472,
        0.0987494554991659,
        -0.1513551395692726,
        0.04263708836159169,
        0.13559410023808177,
        0.055569503079361954,
        -0.004097670208614001,
        -0.04725183335839599,
        -0.07249872424449674,
        0.01779216301726489,
        0.24749070165746664,
        -0.05598908843331462,
        0.06977273201041007,
        0.07897918407570534,
        -0.056375251348275535,
        0.05731990716999145,
        -0.07281465902537161,
        -0.04216685109015708,
        0.052125328844361364,
        0.0802754823070715,
        0.017998834497267746,
        -0.08687275755637158,
        0.0731309358788802,
        0.05371816180979979,
        0.09397625936295423,
        -0.042904804741134145,
        0.04083013479340944,
        -0.03589106159009645,
        -0.13166261849791075,
        0.02084582511464854,
        0.007894456326656344,
        -0.022598694423912383
      ],
      [
        0.039541690105742384,
        -0.05042095279169534,
        0.05920253166511618,
        0.015730348104001108,
        -0.06558153908900932,
        -0.0767103208085087,
        0.059693995522773165,
        0.02114643413829377,
        -0.10969096316929787,
        0.038959203459623594,
        -0.05383279667612652,
        -0.049237130820897985,
        0.044068769223883454,
        -0.05917947665705904,
        -0.08680551033278083,
        -0.004268140649457616,
        0.028362601221950636,
        -0.10578269772527406,
        0.07217860780211954,
        0.01624121835937632,
        -0.07344241161625542,
        -0.0070454635668704075,
        0.03226976677678564,
        0.01666975844595077,
        0.006714391790361342,
        -0.03447232527571585,
        -0.0018905360957532829,
        -0.055471268143117015,
        -0.017430757207416627,
        -0.06228134606030675,
        -0.06663893341324073,
        -0.1085448716392431,
        -0.07262816982725707,
        -0.07147720302321142,
        0.025224527964693527,
        0.05287004504278534,
        -0.04735633737411336,
        -0.0014697576101469153,
        -0.04266985703778343,
        -0.08937383529084464,
        -0.11135025907594852,
        0.10511538135871931,
        0.04275560110423955,
        0.0279001208619137,
        -0.035324493241282603,
        -0.06483163539046416,
        -0.1324195135617386,
        -0.09151911898166036,
        0.026472845618529504,
        -0.185937867092378,
        -0.007456578867839458,
        0.007434438827947865,
        0.06700281068206741,
        -0.06864095180961718,
        -0.13150669023957037,
        0.051695570853251625,
        -0.024220714170911047,
        -0.0752414585497927,
        -0.07908284728481083,
        -0.04453688726091288,
        -0.057312359465365316,
        -0.051419625950617415,
        -0.08084393082516496,
        0.0003224508990122052,
        0.06447307849614664,
        -0.01839452291955754,
        -0.025834841967326765,
        -0.00037289144910552423,
        0.07155586552443723,
        0.07096894885422671,
        0.11670566471915945,
        -0.06912808677531501,
        0.06461306192510721,
        -0.03364443524561506,
        0.016192338826396473,
        -0.06371832019617647,
        0.01580810685737255,
        -0.05364883269050398,
        -0.0787394247332632,
        -0.126122201354215,
        0.07664544831082583,
        0.09190944697253194,
        0.000972117994839526,
        -0.1106010294977831,
        0.0691372598995292,
        0.006729397527221695,
        -0.02841077411930153
      ],
      [
        0.0838607989640162,
        -0.05223193037355682,
        0.006695467940182971,
        0.10182786473783469,
        0.08284608078240814,
        0.12997714964115265,
        0.018413888919790428,
        0.1167066388706961,
        0.10586746643390332,
        0.03784470211369834,
        0.1417970649716185,
        -0.040713105438388554,
        -0.050894055092316,
        0.09083577217249665,
        -0.05777384955877259,
        0.04341382761598427,
        0.10527465352093364,
        0.05224333612755865,
        -0.03540478439241985,
        0.09077268202356964,
        -0.06738580416231699,
        0.055134856933495874,
        0.09527571967728864,
        0.02446000441715533,
        -0.03934606711747885,
        0.10802688131749494,
        0.05373365851251519,
        0.06166244681103844,
        0.10450602042779154,
        0.1400608992092842,
        0.028086576502275425,
        0.09211183718104521,
        0.07306303834589321,
        0.011158033450289193,
        -0.045641207761934435,
        -0.039167959642382,
        -0.0960487113127601,
        0.034827870313948704,
        -0.005429179591225588,
        0.11197256950102545,
        -0.052511423658469475,
        0.07090274439626996,
        -0.013330948211504698,
        0.012650725971627058,
        -0.026657461644240505,
        0.11762699845418473,
        0.06232673291557101,
        0.043201109203224765,
        -0.052384967579328846,
        -0.06499678158605791,
        -0.017266087523644814,
        0.12392075292134541,
        -0.005335812293713651,
        0.04945656278342593,
        0.13187590162315427,
        -0.05846025026629497,
        -0.021028631096098798,
        0.01443710308001199,
        -0.05104085853509897,
        -0.0186068969032499,
        0.05544847950959116,
        -0.07727702566526187,
        0.07969027174987567,
        -0.04276574126862705,
        0.034330584920230445,
        -0.06698303166490205,
        0.07817058652723591,
        -0.019415521048360914,
        0.0705878934402521,
        0.06188153252163689,
        -0.0042090733639177265,
        -0.10126847010723208,
        -0.028320770581658314,
        0.057754723762504,
        0.03216826282471533,
        0.21048530968034945,
        -0.0050352534982791375,
        0.1016079079554372,
        0.08556646385593382,
        0.042025772742971354,
        0.03142614288383396,
        -0.08028256342964162,
        -0.10088999049340057,
        -0.04571586360513136,
        0.061208657765419144,
        0.08105660047342353,
        0.07394381144857803
      ],
      [
        0.08657799784471067,
        -0.10598164356752306,
        -0.07239378391972633,
        -0.06304045367333774,
        -0.10510701725514796,
        0.0023835876849951673,
        0.09427492634756167,
        0.01632549438430103,
        -0.0664304437384511,
        -0.019489092726318637,
        0.06440793567266104,
        0.028466267615963752,
        -0.015497706160599303,
        -0.06858460332848806,
        0.07641602188934464,
        0.0596237262273711,
        0.04433599908625994,
        0.03972780069874952,
        -0.0892478218647434,
        -0.029696629575924907,
        -0.07941913244813227,
        -0.0513600744101578,
        -0.07450034176687367,
        0.04212849630630646,
        0.03177545813722176,
        -0.07808406669041608,
        0.09861808037825069,
        -0.10564642155536806,
        0.0715450506126979,
        0.0320303884366108,
        0.0004273774949898501,
        -0.02219998505785456,
        0.0522020283013974,
        0.08032931858649503,
        -0.08576532518573937,
        -0.07538882799199426,
        0.06038557589518496,
        -0.04857199345416128,
        -0.08494206851060274,
        -1.1442190351209455e-05,
        -0.07567616613299372,
        -0.08002730835245465,
        -0.039202323853967616,
        -0.053006890873953494,
        0.04098704530940253,
        0.003375490165082626,
        0.04532616232767864,
        -0.025567981882118042,
        0.024380842240648327,
        0.10834256357678686,
        0.10441419223759664,
        -0.08561829095648311,
        -0.04957101564372928,
        -0.08195836163549144,
        0.04143258665016951,
        0.04325452187499689,
        -0.01202210722628317,
        -0.030090672559682168,
        0.0894184888806126,
        0.020102528414104707,
        0.12398505448808753,
        -0.015746427299680416,
        0.045445108593162656,
        -0.11525719925939724,
        0.011691753114296186,
        -0.01811178241423234,
        -0.045940609701742706,
        0.021224759027935754,
        -0.0752296342326921,
        -0.039965601474529974,
        0.009012011258870736,
        -0.004270874486470177,
        -0.07373836767772998,
        -0.3402741303600349,
        -0.026447872122468526,
        0.35707591568592506,
        -0.014175684649508228,
        -0.1010643991160614,
        -0.0510790542840063,
        -0.06729592477916935,
        -0.12507331911273892,
        -0.02092946588138195,
        -0.003913108430144979,
        -0.018625126606886762,
        -0.09683067319209299,
        0.08121152022443584,
        -0.07681701261617331
      ],
      [
        -0.11669962813037929,
        -0.056095448317921355,
        -0.0010283469557042539,
        0.04902875285214116,
        0.05435272900778584,
        -0.1017578531558343,
        0.0792576165566978,
        -0.150078371372186,
        -0.09805643017120119,
        -0.14783119365694142,
        -0.032659438688463764,
        0.01918441718669576,
        -0.029670918474153873,
        0.04327878865108358,
        0.09557878264198906,
        0.001973146445381733,
        -0.07649908480559578,
        0.10112630074073571,
        0.053945212120243995,
        0.08565309144905686,
        -0.13493412288552536,
        0.03874289702812527,
        -0.03951099689693986,
        0.02841874975226758,
        -0.04684465295285981,
        0.04566608622882634,
        0.06030850042541859,
        0.05704165023453796,
        -0.06995950100273135,
        0.02967857239055269,
        -0.14915220655379036,
        0.08701623936387479,
        -0.16233568231761086,
        -0.13010450934360154,
        -0.11336392679081579,
        0.01191092242189654,
        0.09248618644435941,
        -0.005205200678931628,
        0.026459437651798895,
        0.013628867966493811,
        0.04412598949663261,
        0.06567123590632948,
        0.05753236594301641,
        -0.0492665167092054,
        -0.185944220638046,
        0.02906683443868943,
        -0.009618111223182247,
        0.05612626395994069,
        -0.014485782012740383,
        0.022943824839767892,
        -0.08934256207337764,
        -0.012237341070890877,
        0.07240200478788249,
        0.05673067592603076,
        0.07022276289852965,
        -0.09989077504905533,
        -0.009909879648884611,
        0.08073843330723146,
        -0.029794629184156138,
        0.0018480680194909308,
        -0.07723100681513513,
        0.07544911943145305,
        -0.02899023436031868,
        -0.018665855883020416,
        0.03511974331670686,
        -0.09546745831849765,
        0.054266890697988755,
        -0.007284703583480765,
        -0.013272599622676073,
        0.09805444078509512,
        0.04391885172764641,
        0.044351603960710174,
        0.07931069640847019,
        0.09668826932250602,
        -0.01955107506249223,
        -0.09512627183055405,
        0.07694104961393988,
        -0.10828931706748994,
        0.018665910605720613,
        -0.03001334733700498,
        -0.04586527520143597,
        -0.11753893157008989,
        -0.0635140152651674,
        0.06254665259635742,
        0.057499650230942424,
        0.08717648253352003,
        0.062333199926094325
      ],
      [
        0.10710006185354004,
        0.053829514346219874,
        -0.08911393070939692,
        0.005496853643039881,
        0.08124955564545273,
        0.022375006923745083,
        -0.03830654875953602,
        -0.02421978138155499,
        -0.02730905626854644,
        -0.06319943253998642,
        0.040162415910874966,
        0.0463441893573752,
        -0.10929233892879238,
        -0.016024848087695776,
        -0.062434008988392985,
        -0.1043489876142147,
        0.05474265726213791,
        0.156394352165963,
        -0.03441221989005536,
        0.12842236939874674,
        -0.10427686890625426,
        -0.007470296936995406,
        -0.06952047484120841,
        -0.07419655653138059,
        -0.012026375101683234,
        0.0031329107416907483,
        0.07139189625441059,
        -0.08401757882581214,
        -0.07382080302921919,
        -0.11853529341315333,
        -0.10427065558466983,
        -0.010545624647040203,
        0.04660730586796776,
        0.09797096748761175,
        -0.08377944337546939,
        -0.017249057947046578,
        0.0013934230272595765,
        -0.001675579445105664,
        0.10512715947399334,
        0.08245793127451383,
        -0.13216218674209324,
        -0.04288349824985341,
        0.009751515487311091,
        0.03823631767450312,
        -0.05131824063712699,
        0.030208255464943268,
        -0.05520268075870144,
        0.007008270469097699,
        0.03220953916121472,
        0.014916651638161716,
        -0.07809914403458922,
        0.02531532128707344,
        -0.07063655909806155,
        0.0010293205310857485,
        -0.05248861093817822,
        -0.06893088995373084,
        -0.07378630679434925,
        0.05260490170803379,
        0.01867899905458532,
        0.010645854454034863,
        0.0025484036277118568,
        -0.021840164015316327,
        0.14468353723577873,
        -0.011530010202306588,
        0.028069226865670573,
        -0.14885219498919602,
        -0.059319943246184614,
        0.01788628027594023,
        0.09796447830553733,
        0.07735254584089135,
        -0.08141107321857201,
        0.06510158726107362,
        -0.060857695994745775,
        0.1541495116455296,
        -0.0653427492485454,
        -0.2472068510986201,
        0.05767939619691029,
        -0.034994893890220306,
        0.009159306147192086,
        -0.002504026869799148,
        -0.018881325997581494,
        -0.053627814158707626,
        -0.049644156882946315,
        0.011658800293827832,
        -0.06630817940793253,
        -0.05382307558690506,
        0.07852300686667268
      ],
      [
        -0.04375149029184764,
        0.059148654565690094,
        0.04848898743953703,
        -0.015481631134280444,
        0.11413369841861963,
        -0.051748414804899175,
        -0.03364843694223794,
        0.06350097537258265,
        0.06502500541704946,
        -0.01929729792090316,
        0.10430560489590926,
        0.05305534616723761,
        -0.04164365098243175,
        -0.032273156537580325,
        0.18775460292705648,
        -0.06888893764707056,
        0.1455878510013451,
        0.10890848390833871,
        -0.13482641506356755,
        -0.05635800654879625,
        -0.09856016623284453,
        0.09131576267222836,
        -0.11947999408598826,
        0.16238009616702961,
        -0.09634786182825973,
        0.05974047011119936,
        -0.031228454857426386,
        0.08887727725694311,
        -0.01805004835216817,
        -0.05977605324309278,
        -0.054744217561903154,
        0.09913498170988812,
        0.10725259350536973,
        0.13681670206016186,
        -0.09747968284105153,
        -0.021778433271710747,
        -0.007624378141232491,
        0.08221598326312883,
        -0.032305360573637816,
        0.07084353616624688,
        0.046682467740245294,
        -0.024523111875448388,
        0.06833500465082838,
        0.06197573907803482,
        -0.18211417570046057,
        -0.1064611560750351,
        0.22528599868501215,
        0.11692422886268042,
        -0.2540803800622648,
        0.22692909078743287,
        0.010567677737736795,
        0.09975306081119752,
        -0.08062228448344805,
        -0.029617913751552847,
        0.013548238997398236,
        0.03637179628439092,
        -0.07779611238385446,
        0.14618905841489693,
        0.0746646969628928,
        -0.13057149937263177,
        -0.006068497913117864,
        0.0069199522891003375,
        0.0348734894950796,
        0.08004000644013978,
        -0.05842348214201921,
        -0.0195078208367979,
        -0.09915908198868019,
        0.0636227294407484,
        -0.04704854654729224,
        -0.13709551300399597,
        0.04666022959836704,
        0.09961742373026783,
        0.033352946244517796,
        0.1503153828016259,
        -0.021776331941422547,
        -0.09880002682782114,
        0.03480455364715909,
        0.09041824885704737,
        -0.09183108352301048,
        -0.0007966616606573548,
        -0.03139284051397858,
        -0.10067413820628847,
        0.035004299459292974,
        -0.04538589720314185,
        -0.11249661729522846,
        -0.09530403904446,
        0.11428289415340331
      ],
      [
        0.07739031638024269,
        0.08122849988663335,
        0.12623078369773588,
        0.13108051631649642,
        0.053737802326213745,
        -0.059931838348901,
        -0.05423184372174932,
        0.00032408499256157285,
        -0.0518702399220027,
        0.01166622299141005,
        0.025684759067368338,
        0.12978445681752945,
        0.14678835411319313,
        0.07678220163174135,
        -0.0028612063874426754,
        0.03915295597683342,
        -0.03918130742458412,
        -0.0049749744920096215,
        -0.04038915017167366,
        0.029165714456441255,
        0.11274963380951881,
        0.015999043835173702,
        0.07351602949148334,
        0.07527533215050379,
        0.09658030331426773,
        -0.00452648450565096,
        -0.04960480895882278,
        0.08241784597908583,
        0.036348920918979316,
        -0.004155591509336514,
        0.0817406910701776,
        0.08068211774276371,
        0.1914288934003488,
        0.04816568383956077,
        -0.03506334889193424,
        -0.03449302700107464,
        -0.033873098035443215,
        -0.052937998055379784,
        0.1121736048467964,
        0.051022686265364596,
        -0.05140000206014023,
        -0.06393398050858284,
        -0.013259740963696068,
        0.14770238144568307,
        0.011980791430646846,
        0.10912761447285747,
        -0.04415557134025358,
        -0.013445521467514637,
        0.14877589318487325,
        -0.0810610755237289,
        0.022141598463865205,
        0.0232306298835682,
        -0.02873226557728633,
        0.06883995925328805,
        0.13433220393938228,
        -0.0065401638864316216,
        -0.012035449340238714,
        0.020865816162815472,
        0.005512969653266818,
        0.039056393710996236,
        0.07372233002545928,
        -0.034018753355758435,
        0.12714295756334898,
        -0.01149624107261248,
        -0.09932119478398888,
        0.006337425568769892,
        0.030021282516669988,
        -0.06822341318036117,
        0.08039050936442067,
        -0.029471544832384493,
        -0.023560644724353142,
        -0.04558817587757519,
        -0.07763522474254451,
        -0.06306535689377189,
        0.029912607435751894,
        0.19458881285630122,
        0.038798615351827305,
        -0.0953855683706392,
        0.06350101150238896,
        0.06048896366416169,
        0.04892680699360733,
        0.01424901487213729,
        0.0879522517027013,
        0.10628614293409785,
        0.04016455604459933,
        0.0003693833991455095,
        0.022059432895838733
      ],
      [
        0.09334068459690788,
        0.03817728116004048,
        0.10270921653086588,
        -0.031288802329986314,
        0.010682576633563715,
        -0.045013717569130335,
        1.137927519615509e-05,
        -0.12680611537769412,
        0.015382415262401677,
        0.0491508953580195,
        0.12150008443908263,
        -0.013677539716972525,
        0.0927104374823402,
        -0.04766654081290591,
        -0.12720334398305638,
        0.02364910284433282,
        -0.05920642831352801,
        -0.004905462572496882,
        0.06109386053013496,
        0.06799425426102111,
        0.0891266889885331,
        -0.05644177217762237,
        0.043610398277426174,
        0.005732475740976705,
        0.025622815499611394,
        0.025935584771485512,
        -0.0021513420721718203,
        0.06544806010046537,
        -0.10112309247900099,
        0.05355272055506502,
        -0.026234802704636868,
        -0.12164384743995894,
        0.05746551378168382,
        -0.00875583086829825,
        -0.019078082396132942,
        -0.07267677957262708,
        -0.08571098621410947,
        -0.0566811995281279,
        -0.06165983718605908,
        0.009816245586998323,
        -0.07324571618724741,
        -0.016853008658673115,
        -0.010441567181459672,
        0.03021541510430891,
        0.11043142370545547,
        0.06091531946610834,
        -0.08843361074115248,
        -0.08652806453863501,
        0.07466375243281201,
        -0.08399675038571314,
        0.07053633443063946,
        -0.07894690560116936,
        0.041532779720280084,
        -0.025959249001637062,
        -0.015747255042787043,
        -0.03369579177399192,
        0.05812997248558388,
        -0.026236714131476515,
        0.006570124317169248,
        0.07695237689034759,
        -0.09760419351315536,
        0.009560961556981403,
        -0.010689787534671051,
        -0.07172988452637667,
        0.06728622266245568,
        -0.03234887812338325,
        -0.004077443897803578,
        -0.01401678530213991,
        -0.07692522957552392,
        -0.054306963291200695,
        -0.11886298542242058,
        7.308053143803876e-05,
        0.02707374742596265,
        0.2025489584545342,
        0.09715369182187461,
        -0.07473760724721012,
        0.09798669759131894,
        -0.12028753434092988,
        -0.075137524187941,
        -0.008503625509793661,
        0.02301769179681172,
        0.02770505344158625,
        -0.08729554798462622,
        -0.03166513712126938,
        0.00992450666515276,
        -0.01087901134268169,
        0.052587605672485584
      ],
      [
        0.016928699316033025,
        -0.08282528834377291,
        -0.060435188625681376,
        0.014795353870076343,
        0.1042558837829698,
        -0.0019817524583956546,
        0.16381874856229106,
        0.03558171545722598,
        -0.022770547938565436,
        0.0005641426209747815,
        -0.010247663936583967,
        0.06940437710700378,
        -0.024336831429592996,
        -0.011085099225399159,
        0.14006316572342792,
        -0.056235379670763495,
        0.1468307031783228,
        -0.00401238984266013,
        -0.032589994408865876,
        0.11743634859912613,
        -0.04302050664044154,
        -0.013298907122542872,
        0.015142723022259242,
        0.012978947952387906,
        -0.052670848757994826,
        -0.12289488550917808,
        -0.018343041092041754,
        -0.02092623977490408,
        0.04901026951511749,
        -0.030181095731228232,
        -0.1450522339927549,
        0.21580101249911982,
        -0.12404918698158042,
        0.014045471762939478,
        -0.13812248392284424,
        0.026554988661394364,
        -0.064998966416826,
        -0.0484305265816338,
        -0.0960444130143854,
        -0.002803547787224098,
        0.06238130862499919,
        -0.13448870669797677,
        -0.06676707781905694,
        0.0173787408051261,
        -0.25966825689879897,
        -0.04909554051824397,
        0.17115880112642318,
        0.08492697655519939,
        -0.23391807283794339,
        0.13329120266988528,
        -0.010785490749764632,
        0.014234550573836557,
        0.020798971151751507,
        0.08996958071759717,
        -0.07102433050286625,
        -0.0153385113603652,
        -0.05600728012013976,
        0.07856774817245388,
        -0.01782582958805335,
        0.014163231418911175,
        -0.0012278326345865746,
        -0.09890685023556134,
        0.048313714080687804,
        -0.05131242353277591,
        -0.02438133538773902,
        -0.12107817074182184,
        0.009405807704751102,
        0.05215950524016335,
        -0.07713306438244157,
        -0.006028108691983274,
        0.020154278699220884,
        -0.00619915956813084,
        -0.05431005632439329,
        -0.12418356257259744,
        0.09802719945272022,
        0.16947258623482606,
        0.007360280835321449,
        -0.040539171976231046,
        -0.04169841801354382,
        0.06514042919759983,
        -0.02742697384765557,
        -0.06320328253166978,
        -0.04958194829667386,
        0.01363512669776762,
        0.0006778046328868987,
        -0.07715392974646877,
        0.13109879244002307
      ],
      [
        0.07641538034921089,
        -0.0438520719025541,
        -0.10873472285818574,
        -0.10864093421696178,
        0.07025356988119705,
        -0.01972316040968175,
        -0.07925593316099643,
        -0.09036145472910029,
        0.05545351412857189,
        -0.033046747495636714,
        0.07831662650353291,
        -0.014327613387664948,
        0.010453051993323343,
        -0.05216483890954225,
        0.050413848353060696,
        -0.07520217294076618,
        -0.0540477101715054,
        -0.07576408406459718,
        -0.10344101067311126,
        0.03788365854107584,
        0.1060853929570193,
        -0.1079936282419503,
        0.07373689495257252,
        -0.04748022768977802,
        -0.06835332386535585,
        -0.09392764760509317,
        -0.03995256907953238,
        -0.08754006879082372,
        0.008408989318135825,
        -0.021904637495991378,
        -0.06676009126788549,
        0.07389679099247368,
        0.008582698957579071,
        0.059731588106751776,
        -0.05505385817913831,
        0.040691735533985786,
        0.041996452048143326,
        0.05545347935200419,
        -0.07228111405097125,
        0.09441003043401348,
        -0.022876498502949025,
        -0.07986429387693642,
        0.08892613379783798,
        -0.05336272916536009,
        0.07046087149559953,
        -0.06531574974154623,
        -0.09185426941457851,
        -0.0005921816556840672,
        0.024013928141048642,
        0.06626158218603963,
        0.031636013051932955,
        -0.03561812513052013,
        0.06756976069202529,
        -0.0026026285409735694,
        -0.0743016089135767,
        0.016845182247436863,
        -0.027323402633175346,
        0.006768684382853433,
        -0.06930174672330942,
        -0.05417277809133135,
        -0.0583754008314385,
        0.03461534812669916,
        -0.09438384249581908,
        -0.018653776338236953,
        -0.02152056941488138,
        0.07030247682324696,
        -0.08230104701490333,
        0.006425590944458049,
        0.06511931880444578,
        -0.009944651064348997,
        0.11359348002859523,
        -0.05200736386348546,
        -0.0010500877746365237,
        0.10300057937885437,
        -0.04621319445369166,
        -0.2568337284496819,
        0.05858623628093867,
        0.039058727776204276,
        0.08756453020193185,
        -0.017152324650102444,
        -0.06620031064389371,
        0.0357588615460315,
        0.09387585989089639,
        0.0030046457696398313,
        -0.05508139678047213,
        0.010925174150200508,
        0.07095843029159585
      ],
      [
        0.09311675878904778,
        -0.003434980480045649,
        0.059548703901544466,
        -0.13172409182921918,
        -0.12328675950551606,
        -0.12851485077022845,
        -0.056760805521899195,
        -0.11200339849357957,
        -0.10355173310757061,
        -0.03330203349130706,
        0.016511291259397,
        0.019553774299669438,
        0.08980332216685658,
        0.03245859931399014,
        0.001980652237727832,
        -0.010995063650336222,
        -0.08004174319029933,
        0.12247182396708568,
        0.11477562921069696,
        0.006432080340202656,
        0.0373340221376244,
        -0.13296550861163223,
        0.007255322768839323,
        0.04815673561943266,
        -0.08799415657787144,
        0.07839426385463766,
        0.008680815813957287,
        0.048574012127967914,
        -0.10732854662282466,
        -0.1466182416498053,
        -0.03983140886901726,
        -0.05223002808478478,
        0.04978547175627559,
        -0.037319293376797576,
        0.0036107136979331884,
        -0.020152089593543573,
        0.006232876096006314,
        0.028723588691160273,
        0.07443433523619941,
        -0.08523240066320059,
        -0.019827862836617825,
        -0.036724159546359755,
        -0.08440998110743991,
        -0.13887402609634988,
        -0.008523000276991488,
        0.03468831599035056,
        -0.04919717780659637,
        -0.04395349059182281,
        0.08998647896242515,
        -0.09279159871163972,
        0.05551668074660901,
        -0.029427849444800137,
        0.07959902237454677,
        -0.03505883405394793,
        0.022640571686548563,
        0.07644227275889576,
        -0.07726866401620128,
        -0.0006244912115685298,
        -0.054288586344006746,
        -0.0768091525241534,
        0.023284248628551867,
        0.012858842244864842,
        0.01287222578530814,
        -0.09467493066580279,
        0.10440449006059704,
        -0.012987415905874438,
        0.04830642153804579,
        -0.020841830674868896,
        0.011423477470614752,
        -0.02616470730494005,
        -0.05778364028119389,
        0.07042636209692493,
        0.038428309372946064,
        -0.09017329336846455,
        -0.019851610629409256,
        0.05564638056392434,
        -0.09202133811304232,
        -0.05514561854511626,
        0.09681179919474094,
        -0.02599574582606126,
        -0.09110228519012957,
        -0.11751642711077039,
        0.01769043604698156,
        0.0014889654422987452,
        0.04885755040775863,
        0.08094838756300379,
        -0.05332533619975039
      ],
      [
        -0.05191876770685476,
        0.11209848747701587,
        0.06338475181181574,
        0.0960917969432777,
        0.052298298519185986,
        0.09231816980648683,
        0.055912089924275585,
        0.03516367763589219,
        0.050525167137010225,
        0.10121161722122779,
        0.10487748945217598,
        0.13000865151564517,
        -0.0022237989662885777,
        -0.06246994068937714,
        -0.03233593872512669,
        0.002028262201359323,
        0.0609059155989473,
        0.060412271526365295,
        -0.005522010731607933,
        0.13026597973053264,
        -0.017600173737576958,
        -0.0656915186907486,
        -0.0011210775485871846,
        0.05719487582687645,
        -0.05710169945207139,
        0.046394905734860235,
        -0.05733606798775533,
        0.08544936000557447,
        -0.016384092447793014,
        0.14760626007447597,
        0.011467612071162056,
        0.09120232544980988,
        -0.008671076791246237,
        0.13090018890389413,
        0.08573391033162343,
        -0.06742231548321818,
        0.01675454083548971,
        -0.059998511211605786,
        0.09751567657208997,
        0.09615740096976684,
        0.11348724636260274,
        0.04711292387131546,
        0.028034721818062436,
        0.08150627970000172,
        -0.1185166185773566,
        -0.09103160864403155,
        0.05487016062923754,
        0.1020692385538393,
        -0.06745560163976844,
        -0.03177699736378496,
        -0.09623831594148433,
        -0.006379068403282547,
        -0.021667148931976826,
        0.09179527869367125,
        0.09230616712186944,
        0.10789040919873717,
        0.043065241519717246,
        0.072753979021569,
        0.05823867344555402,
        -0.06129314331336265,
        0.06710528090036279,
        0.017081936365988745,
        0.05715361486610172,
        -0.012497226356527317,
        -0.008927069040828815,
        0.036451060511750545,
        0.08166985598495405,
        -0.06767643829113312,
        0.0772670391095113,
        -0.028224946293227464,
        -0.12807064286831193,
        0.061309230121012144,
        0.08040902873297695,
        -0.05076671652764764,
        -0.01492220751963784,
        0.0920680481687914,
        -0.06471887030247002,
        0.0021508482930973397,
        -0.02327848156119457,
        0.036880962413818115,
        0.029501048679124352,
        -0.08161357860527674,
        0.05309363110193937,
        0.01304669821253499,
        -0.010323874977767943,
        -0.06583317808133181,
        0.04910712860325777
      ],
      [
        0.00447043775719834,
        0.043708644606201705,
        0.061019706319200666,
        -0.030449692491317893,
        -0.04889096193262759,
        0.033661406246395444,
        -0.09462188971969478,
        -0.07880616149398655,
        0.037871941280392674,
        0.14418649111519516,
        -0.017945680853451263,
        0.018013531877573378,
        -0.08093391713798632,
        0.0648955669459077,
        -0.12125662855487322,
        0.03955607936196805,
        -0.12204198848962695,
        0.002555756068896773,
        -0.025246663109993184,
        -0.12577266402532716,
        -0.002431136384440143,
        -0.08353069998436935,
        0.026340945524479187,
        0.03140453570711401,
        -0.000283007368573843,
        0.02792166172473567,
        -0.07866083507970259,
        0.006646660149222538,
        0.049895111840249286,
        -0.001932538172342859,
        0.16220768309574474,
        -0.10545154141473942,
        -0.05380206588612926,
        0.005511657238448198,
        0.14217653937031668,
        0.11586082422612987,
        -0.06998989251666003,
        0.0149710726272098,
        -0.08913103042166878,
        -0.09402413890101478,
        0.019867502959033778,
        0.10992252136881761,
        -0.043977292461425226,
        -0.10685009513100187,
        0.12697946242714697,
        0.016360453372895854,
        -0.1647271922880492,
        -0.15331697633022265,
        0.22077625882218666,
        -0.13351860952073774,
        -0.0378238564095888,
        0.01755566772608547,
        0.04282783645069716,
        0.05426421521320184,
        -0.08405460146602026,
        0.025592852058562474,
        0.0864005025731223,
        -0.021142455446331684,
        0.08446296181735181,
        -0.07181271023770068,
        -0.023537110567726623,
        -0.027369197291318082,
        -0.05460507062416967,
        0.11311519461644859,
        0.09472582657689799,
        0.15423593221689694,
        0.02260348122966093,
        0.061876288339957945,
        0.07090343761012508,
        -0.06432511430277194,
        0.034596473873135136,
        0.10229481918136582,
        -0.07059646503469237,
        -0.08137031294100405,
        -0.027927799439452856,
        0.1071868361398485,
        -0.007789141563885324,
        -0.08633820110548503,
        0.006901346581881152,
        0.019254051149073245,
        0.008262152304768573,
        -0.04841869172070512,
        0.09676319219579785,
        -0.09293437154536129,
        -0.08642443949876191,
        0.04947010878006848,
        -0.00785636233395815
      ],
      [
        -0.057426894878262656,
        -0.10491100348682204,
        -0.17311891123773288,
        0.011285492889012604,
        -0.020218123947117927,
        -0.1342374628812662,
        -0.005272550600933634,
        -0.09950848528795977,
        -0.028261551153759848,
        0.013821029925925545,
        -0.12122298986759376,
        -0.03627147762200625,
        -0.0010965217758048854,
        -0.08156624969680427,
        0.026961513507321455,
        -0.1346563126084574,
        0.014759933525940773,
        -0.09513969968977684,
        -0.07792410479948715,
        0.05856792356273257,
        0.027054293286157008,
        -0.08638158564737226,
        0.03674705253598528,
        -0.023959688659707386,
        -0.003407402465325417,
        -0.05303895994905546,
        -0.07403748445277922,
        0.10286337722265117,
        -0.04052740753583031,
        -0.08936149160978828,
        0.027836062754915646,
        -0.07783368137888488,
        -0.08781884454090627,
        -0.135145177996736,
        -0.11726670511297793,
        0.08299059191732666,
        -0.009706271405278967,
        0.030968139046531836,
        -0.09742211105325387,
        -0.03554915688235402,
        -0.12581619754069426,
        0.056802054432963565,
        -0.1419597400358539,
        0.06541372695040835,
        0.049354127702693394,
        -0.11044282960396563,
        -0.04721429860084162,
        -0.1065876835812534,
        -0.15173593638964342,
        0.009614601267986583,
        -0.012826051031013832,
        0.0774336663804207,
        -0.003412786409549586,
        -0.08362500480950684,
        -0.06694986209427789,
        -0.11612739897221712,
        -0.11544770008635315,
        -0.030753944839845972,
        0.06582356219033288,
        -0.09888004574966695,
        0.08569311476715365,
        0.07214027063405824,
        0.04395550842307531,
        0.023406783562422404,
        -0.0402671534815287,
        0.027899254875136326,
        -0.09793400612253836,
        0.006096412103264066,
        0.07026719032395201,
        0.024317236184101025,
        0.07020934572666207,
        -0.06783006406128914,
        0.076488178141364,
        -0.11105102446601615,
        -0.03530986622121211,
        -0.05396399094479413,
        0.08830945457374577,
        -0.07724596571756245,
        -0.049148883316757826,
        0.039643756718104654,
        -0.05738729838977594,
        -0.030018965310802687,
        -0.07685326941811471,
        0.09930723512228773,
        0.039458571067000035,
        -0.03962828540258391,
        0.09714908657602973
      ],
      [
        0.1401952013707275,
        -0.021468147601492522,
        -0.024209543265929105,
        0.06863812700474842,
        0.06374051905392618,
        -0.033286284427291146,
        -0.06808555054537342,
        -0.0489826006387367,
        0.11668536769727056,
        0.06435724508506645,
        0.09617167522169419,
        0.07551917571811102,
        -0.023127288663823343,
        0.08858851691420791,
        0.023072274539221838,
        0.11125428131329768,
        0.07560780511671304,
        0.07595248449788923,
        0.10338746779920967,
        0.15211558509637682,
        0.05711378095694063,
        0.13400942209545497,
        -0.016617383208257976,
        -0.0206960927368439,
        -0.044389137119065024,
        -0.026525084446721192,
        0.08860683119631788,
        -0.03661003200661046,
        -0.05218441947533279,
        -0.028817516663679668,
        0.05101475711000774,
        0.12315225380989078,
        0.051424265706354846,
        -0.008705428388885892,
        0.047608650406018575,
        0.08380275092065398,
        -0.017259686680448198,
        0.005227729259555953,
        -0.008982251489081945,
        0.03264559403577438,
        0.06239361689501569,
        0.08842666954932964,
        0.027989543818687984,
        0.1513312296832297,
        0.013045867184922148,
        0.0038606404781202745,
        0.11334013092463327,
        -0.008359795239977885,
        0.009976855529387393,
        0.15175877702802654,
        0.07672488942230293,
        0.10352798542081178,
        0.013151556234615938,
        0.03948762290003817,
        0.12048660268418081,
        -0.014203162907363757,
        0.09495677948702845,
        0.09312891075717011,
        0.0033050304636871707,
        0.021213637445502153,
        0.10042729854000387,
        -0.10287939646826853,
        -0.0012064877046235863,
        0.06984565294540777,
        -0.09380134145166073,
        0.020438724267830714,
        -0.021569515207752105,
        -0.05618129965279217,
        -0.09432624917307006,
        -0.07936375724110442,
        -0.054052094435335186,
        0.032368925529160375,
        0.06615552979928938,
        -0.008075692381951926,
        -0.07333014578448402,
        0.152344999457774,
        0.09032213751625963,
        -0.06016628708047454,
        0.036093353826800526,
        -0.04852071778040067,
        -0.0412067595507503,
        -0.0016386092186976924,
        0.0721102699527392,
        0.027236386272764306,
        -0.052048519120087025,
        0.019742546568077196,
        -0.06955819856444861
      ],
      [
        -0.04034076177792753,
        0.02375284708524618,
        -0.12230218316190856,
        0.0012304480669141158,
        0.03164482209143184,
        -0.0356627976766597,
        0.10227438413480403,
        0.10360064200043753,
        -0.07280855703234633,
        0.042102410888509245,
        0.01658518288969342,
        0.011798883135190487,
        0.009026141067588828,
        -0.1290374135291183,
        0.22606085082066849,
        -0.11340716128909616,
        0.1949288742813904,
        0.04036523551534061,
        -0.154690631199306,
        0.028386659406635803,
        -0.0021415994563649403,
        0.1059850271390892,
        -0.12456869097333732,
        0.14946298321741625,
        0.08962463152275972,
        -0.021731088510462314,
        0.06426761584446483,
        -0.029306680547601403,
        -0.006122918756052247,
        0.05545464689152638,
        -0.17220222138609298,
        0.256975131302502,
        0.02942930616672206,
        -0.020160976819002998,
        -0.09673322930324253,
        0.03804744208043973,
        -0.031121844276976826,
        -0.06502991203750345,
        0.053648392834137276,
        0.02089629975504804,
        0.04324265815330507,
        0.02167692812777201,
        0.11046871939199573,
        0.1310567127148667,
        -0.33519517384142333,
        -0.19022873267789678,
        0.08023853185160983,
        0.19486058835967593,
        -0.33319765793157224,
        0.2652706124578216,
        -0.04110822132807006,
        0.14229245957986006,
        0.056592547249439205,
        -0.021621759808411804,
        0.02646831772264252,
        -0.08958419364047644,
        -0.13418212670765922,
        0.16087126879091168,
        -0.09123266728074601,
        0.06431192769491954,
        -0.004591349401965501,
        0.026948220172822446,
        -0.12282568367080468,
        0.10673089667305352,
        -0.022065883216300784,
        -0.11612104892738076,
        -0.10989847156093503,
        0.03386752875474485,
        0.075206420687526,
        0.01671071933410266,
        0.07326373217964138,
        0.01471627553663563,
        0.011766259058457127,
        0.05748013494288221,
        -0.06669960392576622,
        -0.09993923687392305,
        0.06427943490474841,
        0.13022702692307458,
        0.04727118911493519,
        0.09772123056666993,
        0.09559660722289268,
        -0.02005380153263798,
        -0.11608749154835997,
        0.13125792836859448,
        0.026663144736588772,
        -0.10074762725995859,
        0.02389738528837381
      ],
      [
        0.007167971520159401,
        0.06729606521205068,
        -0.12052041266762477,
        -0.06815000657753122,
        0.13389245781679582,
        0.06800302829962959,
        0.025555450166256675,
        0.029940575948656626,
        -0.11161989873048345,
        0.0011784413814860833,
        0.06928893014189673,
        -0.02401589693541276,
        0.057874360379066084,
        -0.08846904701146988,
        0.13891850932271801,
        -0.04596692158276099,
        0.1124762167592778,
        0.06693570678277888,
        -0.038541930795024444,
        -0.01253472962406089,
        0.005774456325954102,
        -0.009972139615498412,
        0.08007597493603749,
        0.02623685066955015,
        0.031932347065737735,
        -0.036731252284679786,
        -0.03577096051508455,
        0.08460137216745009,
        0.10668296440851402,
        0.08887461842122567,
        0.07699068369706899,
        0.1622972836952271,
        -0.08647181030262592,
        0.006261097904539851,
        -0.0931928137196276,
        0.06745890093885397,
        -0.08897583970202672,
        0.07604968160678918,
        -0.06460236494957272,
        -0.021417427503780794,
        -0.0057078182708402946,
        0.08469736230244623,
        -0.013092700310655892,
        -0.0344593371085372,
        -0.00314578572398755,
        -0.06427922218898602,
        0.07230211001908325,
        0.03911160270790183,
        -0.01511581236055464,
        0.14367285680342642,
        -0.09239838049374113,
        -0.04303037296057908,
        0.09841943601902416,
        -0.0668141692235472,
        -0.08155929402276979,
        0.0028397690227906936,
        0.10652189174385551,
        0.016104542672952173,
        -0.020140875433425957,
        -0.04245841472509257,
        -0.04142999462444583,
        0.08779978847176058,
        0.030969858491309323,
        0.052083522632293114,
        -0.04126742526351944,
        -0.04861230819023886,
        0.00020539193671423523,
        0.06566159752632825,
        0.08371269995931642,
        0.08485182942915472,
        -0.03756931221819685,
        0.09174022274122168,
        -0.04169084443874482,
        0.34828096187351776,
        -0.005851572925579734,
        -0.48831467083205443,
        0.0034213031783172274,
        0.16751671098228432,
        -0.06727462741488482,
        0.15461729530803658,
        0.06552063954029422,
        -0.02995647245930431,
        -0.012427192217017964,
        -0.07324174398119243,
        -0.048633795082745825,
        0.05033912360171184,
        -0.03173554483204637
      ],
      [
        0.05190651676689645,
        -0.05117515489136042,
        0.04539306454733632,
        0.01890655311267023,
        0.038560029404182926,
        -0.0381735666537323,
        -0.02600955573785917,
        -0.14734074523178467,
        0.009532538391156356,
        -0.08033366758287502,
        0.07526295435660625,
        -0.061334629056276964,
        -0.11398609236589986,
        -0.08082613742650238,
        0.062489481512253024,
        0.013169373029096132,
        0.050921758392723775,
        -0.013158460418715084,
        -0.10823984192430303,
        0.08212427217751216,
        -0.11839593244274445,
        0.08012416552271986,
        -0.018051667689948928,
        0.11983471029958262,
        -0.012315846422004142,
        -0.021290470878586532,
        0.03193101497293451,
        -0.08333262693582101,
        0.047889328778031794,
        0.03732776737441577,
        -0.025773313355088978,
        -0.01097256566585045,
        -0.050368535826444766,
        -0.05086902079897687,
        -0.07342424033912892,
        -0.03924146896886941,
        0.08514812266135714,
        0.0018043204579075212,
        0.015293721024935085,
        -0.0025759061618550482,
        -0.031412876534515334,
        -0.12170576551334222,
        0.06120490942594563,
        0.031416305873549384,
        -0.14711455450194713,
        0.004859792125861386,
        -0.045243459300402855,
        0.12510184734644272,
        -0.06708967414397583,
        0.19732991687501797,
        -0.01446273775545883,
        -0.05670014695934832,
        -0.002591331474589809,
        -0.06695392425622361,
        0.04989619293656981,
        -0.1187985131094248,
        -0.0022022700382605233,
        0.08329509740158282,
        0.008694656289048686,
        -0.047040580173077655,
        0.031027164508743047,
        -0.02253764434957691,
        0.11362123594630895,
        0.05650578420153279,
        -0.009937974131514087,
        -0.018657850777459843,
        -0.05088736713823373,
        0.08905321064456016,
        0.038344476030622,
        -0.1183548047534543,
        0.03464913523467686,
        -0.025414316658631437,
        0.03122050976840638,
        -0.12232673440436075,
        -0.032920645247318414,
        0.14356177872928355,
        0.014939925046125208,
        -0.020469223182268487,
        0.018985492676785662,
        -0.11465990124296555,
        -0.11261636971455745,
        -0.06911019309345144,
        -0.044081719904118834,
        0.017504700403020133,
        0.00013393813384732407,
        -0.09814328223772403,
        -0.017608109252223066
      ],
      [
        0.031695901987857815,
        0.06832989798674172,
        -0.05213564452551972,
        -0.11298563558958474,
        0.10178499408329433,
        -0.11550353992284025,
        0.026934915140552077,
        -0.017837890528421742,
        0.09907456348758509,
        -0.05986593225002012,
        -0.08656648206853998,
        -0.006590330344665189,
        -0.06811805821687053,
        -0.008858532591631106,
        0.10575283059893704,
        -0.05656204802104771,
        0.046318255635919243,
        -0.06705254102745685,
        -0.19564695707887408,
        0.10534583142123048,
        0.02787642224485707,
        0.08108052660566406,
        -0.07047168466728257,
        0.0714302117721094,
        0.05884623586888435,
        -0.08557733314148452,
        -0.04455538317906279,
        0.04760161145476918,
        -0.02809076856147134,
        0.14154038604837887,
        -0.14835881871861256,
        0.09370193762913691,
        -0.019580803849775643,
        0.1356402655748097,
        -0.13892273069827074,
        -0.04912494026530436,
        -0.018349713132771985,
        0.11488493233911853,
        -0.11034552392768723,
        0.12486843065547411,
        -0.039808206074153106,
        -0.010114953458645938,
        0.1449650463087776,
        0.11870108986096095,
        -0.3035938592427815,
        -0.15490372209111927,
        0.15362266914920314,
        0.18628485956585963,
        -0.25658199196535963,
        0.25679695041774464,
        -0.02393273740590796,
        0.13540444740475524,
        0.1241295852556118,
        0.006162583406663233,
        0.020308624297102222,
        0.0007777079252905461,
        -0.0977047874868899,
        0.0011899173921614981,
        0.07990500958733734,
        -0.006980765439989208,
        0.05379539839431781,
        0.07267000168359757,
        -0.10315657097813986,
        -0.024041902897165703,
        0.08098424175669125,
        -0.11439831665623006,
        0.05068053771575984,
        0.08535844610920088,
        -0.09964144866868396,
        -0.03602281788802053,
        -0.0669504536735866,
        -0.05775184160510515,
        -0.023603809440333183,
        0.06906829981564205,
        -0.05972275232297664,
        -0.057860609741504594,
        -0.015656372817775273,
        0.16741889099075608,
        0.006147018831238121,
        0.01347109656686021,
        -0.03214528381428489,
        -0.0914717282953125,
        -0.1301203714153702,
        0.16831355901941566,
        -0.07806605357674921,
        -0.10424377880421812,
        -0.05266309876035362
      ],
      [
        0.022525673119536346,
        0.03889638877525178,
        0.07559517643670702,
        0.05198523210657834,
        0.07820794185053588,
        -0.0361920553405703,
        0.04929081008741881,
        0.019810781758470373,
        0.12723515415242895,
        0.02067895428623343,
        0.011995355044025038,
        -0.030568011105510558,
        0.08154379503086744,
        0.09090766178809734,
        -0.025660353059756936,
        0.10488816307003036,
        0.13101476131694026,
        0.03422075308778796,
        -0.01755862153741598,
        0.15896502136813068,
        -0.025577028645798153,
        0.13400290071336216,
        -0.005632714324573953,
        0.011343021282634995,
        -0.004580350833075266,
        -0.08365415711690502,
        -0.024894872864592847,
        -0.08709073071824779,
        0.014150219262960643,
        -0.04381916172333668,
        0.05000744878911372,
        0.023241996561385,
        0.17169969023468626,
        0.13981169439293722,
        0.031921705670459544,
        0.0771214855652128,
        -0.014951168433906524,
        0.07209274415108792,
        0.05638334941260627,
        0.08160850607979167,
        0.10940430459175972,
        0.04616249615172138,
        0.1403715643772136,
        -0.05010299588187474,
        0.12064588847441336,
        0.03314434307767911,
        0.021402528378515556,
        -0.009886904748153253,
        0.004508672352054509,
        0.04200529474744321,
        -0.012944196846009543,
        -0.08885961139765114,
        -0.02999345739545971,
        -0.05914623659934283,
        0.17099775535140754,
        -0.03203946046928935,
        0.0565337796013975,
        0.07134587854542436,
        0.11281320123556028,
        0.05739850148534416,
        0.0533221132901596,
        0.02509242520581171,
        0.15967403742827604,
        0.06272164339155528,
        0.0018711454896970085,
        0.105073026879752,
        0.03612317276331088,
        -0.019890479100746643,
        -0.04350942539452547,
        0.006612873410501682,
        0.0011356988659681016,
        -0.03994514299767874,
        -0.005745760483588433,
        0.017439024155433278,
        0.07853255637952083,
        0.010571292738488164,
        -0.09046459540572628,
        -0.0069760929065537615,
        0.008403244415291451,
        -0.08758257417444343,
        -0.010698747377366103,
        -0.07832010182504608,
        -0.057631835750465356,
        0.06840326717460975,
        -0.08326048221877545,
        -0.049482457013951174,
        0.014043639424934444
      ]
    ],
    "input_size": 87,
    "output_bias": 0.032907645225131406,
    "output_weights": [
      0.07394327757503324,
      0.1589833294189407,
      0.06951843521242139,
      0.02009303383285057,
      0.0536904463934315,
      0.17875174030555574,
      0.06675879521852801,
      0.046162603514951744,
      -1.2475488581894933,
      0.046385897299086966,
      -0.6212502291520067,
      0.8710484912043331,
      0.19736194196109821,
      -0.0576964064083834,
      -0.0702851460919997,
      -0.2717719149731252,
      -0.1662164725513342,
      -0.6123907707617333,
      0.11011035672429863,
      0.21610851373845097,
      -0.5658641701156896,
      -0.025722555229143473,
      0.2054457822715745,
      -0.18601025951901776,
      0.47980112750924275,
      -0.10478480013163748,
      -0.13292187123714808,
      -0.8577826954294385,
      -0.25132490911552274,
      -0.30373063307917253,
      -0.7446002352445785,
      -0.015604524312271436
    ],
    "policy_bias": [
      0.0040376016632679085,
      -0.054110254900984034,
      -0.19349940877944788,
      -0.18227887410655702,
      0.2790050979959447,
      -0.19398146656215734,
      0.14152271764268612,
      -0.052751976695367395,
      -0.05570524379512226,
      0.07892640057925446,
      0.042052545398676276,
      -0.09984796413231727,
      -0.13628201860466152,
      -0.17151476620928574,
      0.16797982710507114,
      0.4264477834010026
    ],
    "policy_names": [
      "PLACE_SETTLEMENT",
      "PLACE_ROAD",
      "ROLL_DICE",
      "DISCARD",
      "MOVE_ROBBER",
      "STEAL_RESOURCE",
      "BUILD_ROAD",
      "BUILD_SETTLEMENT",
      "BUILD_CITY",
      "BUY_DEV_CARD",
      "PLAY_KNIGHT",
      "PLAY_ROAD_BUILDING",
      "PLAY_YEAR_OF_PLENTY",
      "PLAY_MONOPOLY",
      "MARITIME_TRADE",
      "END_TURN"
    ],
    "policy_weights": [
      [
        -0.007465751490394031,
        0.0028392107769165814,
        0.1083799345716019,
        -0.009521617398286778,
        -0.15501170535515077,
        0.047573693310041444,
        -0.039875052797888284,
        -2.065648763814773e-07,
        -0.09579019019549685,
        -0.12289413194485475,
        0.03543728810007503,
        -0.09018973578640067,
        -0.0015288139618166135,
        -0.12000533680053314,
        -0.08359052809686596,
        0.18409146153240208,
        0.20886751028544728,
        -0.12176075649856467,
        -0.16668871426294737,
        -0.012264131075272973,
        0.11184179150593175,
        -0.008225497517534652,
        0.1399304815864072,
        -0.08007304420259641,
        -0.09689043909414988,
        -3.095955009462669e-05,
        -0.0953528902647227,
        -0.02482681549647861,
        0.03940577603208543,
        -0.03513247832004805,
        0.0392801927583505,
        -0.04119714810874052
      ],
      [
        -0.17065872262574774,
        -0.0014350424388181147,
        0.15187566560399002,
        -0.12969694698129933,
        -0.10248716446916185,
        0.09118062382602068,
        0.15534787551216345,
        0.003919017688558533,
        0.05864935654761887,
        -0.02953735495988419,
        0.10262031647254892,
        -0.03445260888854209,
        0.014743897974208038,
        -0.0696768491939968,
        -0.014127079481143848,
        -0.002864274025995811,
        0.08327522151125956,
        -0.0501115233305285,
        -0.10135915277971098,
        -0.0321326226403527,
        -0.008997876109178439,
        0.05130132751489404,
        0.1185287658346318,
        -0.1257484811730531,
        -0.017389630474895817,
        0.002619625053418128,
        -0.11181539822393105,
        0.05692371629966143,
        0.05022641977942687,
        0.05022741854073213,
        0.0838991386047994,
        -0.015539270159812423
      ],
      [
        -0.02014654714317856,
        0.1969441469065213,
        0.026123358860849908,
        -0.09209815170691676,
        -0.22253610811779753,
        0.0873721552324994,
        0.1426030504352263,
        -0.01869056783289731,
        0.06513157537298049,
        -0.09345610203060885,
        0.052324558121268926,
        -0.0903236578109553,
        0.028273907438581016,
        -0.21080321252068282,
        -0.15141720226743088,
        0.13520954309924205,
        -0.06255842702344563,
        -0.004783504139031075,
        -0.17678037694627535,
        0.033944327147352495,
        0.09735231038300161,
        -0.010573219220403588,
        0.010613396876365576,
        -0.08280983281875744,
        0.006423167450144051,
        0.02466072384042083,
        -0.13423380837919918,
        0.03235034397142764,
        0.07214859252616337,
        -0.06747399312988349,
        0.04262078484935893,
        -0.21782442259900903
      ],
      [
        -0.17570233774694166,
        0.07623820324788212,
        0.0775224222543924,
        -0.13780907553406999,
        -0.16338714743053034,
        0.14453959762193455,
        -0.030200784405397627,
        -0.13244902289532864,
        0.040644295016585126,
        -0.13859529939188098,
        0.07372792530275188,
        0.03644832383554478,
        0.06844713026865247,
        -0.08600437835315458,
        -0.09351327713388376,
        0.12413542566383479,
        0.11895141683811851,
        -0.029791482585359737,
        -0.14620085267802482,
        0.05142371183872346,
        -0.10364618275401456,
        0.13380009477924587,
        0.08752094747336339,
        -0.1662855132372066,
        0.0398845070790065,
        0.033417531003518616,
        -0.14678053366885643,
        0.0865451358184164,
        -0.022196248851000584,
        -0.06013672772262121,
        -0.03674470444865005,
        -0.1813976132409989
      ],
      [
        -0.04304660292180365,
        0.012845023622427332,
        -0.08082795462395163,
        0.09069657630921227,
        0.1817051922328433,
        0.26522785963204154,
        0.7252008260536165,
        0.19956097631685105,
        -0.039756111951938546,
        0.30257604002523025,
        0.15544570558270998,
        0.12094005011994696,
        -0.160429085563768,
        0.1345027971713096,
        -0.28750758508253815,
        -0.06312131010630961,
        0.1849352846640646,
        0.2914711014276091,
        0.1791551150522647,
        0.2677840281392586,
        -0.20828922533276736,
        0.07717531350669227,
        -0.04251586211917624,
        0.16323648943799948,
        -0.19235729677394953,
        -0.33895720738705554,
        0.1643407222126999,
        0.05904136313519751,
        0.42644015953583025,
        -0.10261948899133515,
        -0.014658327934246143,
        0.2576509630191265
      ],
      [
        -0.125659128675994,
        0.10562479753197465,
        0.07897879381494188,
        -0.04212425907628938,
        -0.20731747147648288,
        0.1514399175874291,
        0.14605310204719502,
        -0.0804358682713536,
        0.08614916320610538,
        -0.04494443189484616,
        0.03409875417207883,
        -0.028764931474139707,
        0.11959042650991719,
        -0.1073360257017687,
        -0.01303430800633898,
        0.021924221100840083,
        0.0049285456184730275,
        -0.11039815457799294,
        -0.23303606951803416,
        0.004685485424943074,
        0.02204528556601107,
        0.030986293031619667,
        0.05983696157549033,
        -0.06933674114634276,
        0.06873110483975545,
        0.14316590198433563,
        -0.1755654443628658,
        0.02530937105542304,
        0.01703097071321994,
        0.011669416487208645,
        0.10189481278228212,
        -0.1153056245517265
      ],
      [
        0.19582212946816405,
        -0.03714413320454652,
        -0.08186724191599079,
        0.08432422272012,
        0.0755732938192384,
        -0.09456337261258167,
        -0.19267815799418278,
        0.12032697733618335,
        -0.03692143975899555,
        0.004265927474935599,
        -0.12876666028616965,
        -0.0012210497349245805,
        -0.11149122439387837,
        0.14599579485036385,
        0.11367670050702658,
        -0.15809177456404488,
        -0.046422108373835855,
        0.05776569262538676,
        0.11870741615563586,
        -0.003484534160387663,
        0.010912129060850097,
        0.026491717669913508,
        -0.002945454267259263,
        0.1550925097867611,
        -0.012250623514928267,
        -0.06271128479343384,
        0.09863326789289423,
        0.06497224508165172,
        -0.018877001568752372,
        0.06940983928066154,
        0.036610002262811726,
        0.007914993350411945
      ],
      [
        0.039158033970795994,
        0.04985361457027351,
        -0.07329913783713292,
        0.044250279415564586,
        0.06861582793799055,
        0.07312416806129876,
        -0.02397371637116884,
        -0.07074420365028676,
        -0.10578040399075306,
        -0.11204309255693116,
        -0.03843606226848355,
        0.11150261258778116,
        -0.030549199188437178,
        -0.006517050250706348,
        -0.0657209109072936,
        0.0355354777349142,
        -0.07662546139739433,
        -0.0682320620635812,
        0.05316351700627106,
        0.023772825336203784,
        0.0007546829072577128,
        0.04768762415599926,
        -0.10342858442507787,
        0.03361810153091758,
        0.04302574132555663,
        0.0289858507901881,
        -0.05168761438648066,
        -0.02603191169223518,
        -0.0821227615480719,
        -0.0019147353163821237,
        0.0009687831186389684,
        0.007828500588311004
      ],
      [
        -0.02728053872195613,
        0.04733653703309695,
        0.04303332890318252,
        0.08072737624638103,
        -0.09008992235369856,
        0.03269561399878746,
        0.05116916460266957,
        0.04203010017434861,
        -0.07687589560694263,
        -0.07762475100220462,
        0.03362844004805173,
        -0.00011265738031279156,
        0.0021112711850223044,
        0.03888497849881344,
        -0.017453812346869955,
        -0.05049354923063731,
        -0.00793330036931529,
        -0.09803927724048485,
        0.02695521668019471,
        0.1044541930344883,
        0.05308365524172638,
        0.0340559642794675,
        -0.0832674205340712,
        0.07016497840346152,
        0.07849258674189104,
        0.09898702718041011,
        0.01526202495877287,
        -0.09695787054850494,
        -0.03951094308551908,
        -0.015947763807943764,
        0.022790829535820054,
        -0.09023806377022842
      ],
      [
        0.1784226415175034,
        -0.07952743769978633,
        -0.026919005058195077,
        0.15457953814804537,
        0.03563614750199235,
        -0.15120042921413926,
        -0.06970566407452886,
        -0.0494334278265654,
        -0.15581947474953797,
        -0.04028750020506314,
        0.013273989547949961,
        0.1352798091478273,
        -0.07157101772608902,
        0.0698193361413268,
        0.08580897813275584,
        -0.14936476955824365,
        -0.09842671494291398,
        0.0010755840476314449,
        0.036858691704130794,
        0.07278520845861695,
        -0.024619115278613473,
        -0.16398589116671286,
        -0.0924620869006517,
        0.12377923322099041,
        0.034160896784469354,
        -0.010555181159674815,
        0.12598930513192744,
        0.014621344044383922,
        -0.13656208873097708,
        -0.015308255168719458,
        -0.08544977796646691,
        0.11419652452051404
      ],
      [
        0.009926291349367365,
        0.05004295131906532,
        0.0470224488975521,
        0.1529603593486339,
        0.03801457421937299,
        -0.11810450717508288,
        -0.06855958920605046,
        0.08069758681399657,
        -0.014466084355110166,
        -0.06053206051508356,
        -0.08952412155344026,
        0.14575513619905792,
        -0.03203440767928718,
        -0.04422746607904845,
        0.06252276425465392,
        -0.009433110036158994,
        0.03138169452389845,
        -0.08127434049115413,
        0.10222797001582881,
        -0.0682334567759602,
        -0.005664778073623026,
        -0.03496727131537184,
        -0.11556624418912707,
        -0.028782862308286895,
        0.010536245985713368,
        -0.016166477953648346,
        0.15187063081539937,
        -0.08269940353384482,
        -0.09220820723592538,
        0.022038040302758983,
        -0.04246889645163306,
        0.06869921917343147
      ],
      [
        0.024441723100792425,
        0.1047267975182062,
        0.02264054923836459,
        -0.08156089828696718,
        -0.011943849643489383,
        0.03817493451640596,
        0.05108710743563421,
        -0.03375156139954377,
        0.04640763115116699,
        -0.10515624116398994,
        0.06932536594950794,
        -0.04711646735739845,
        0.012907360833815096,
        -0.1475838432339698,
        0.038981835557936446,
        0.043705132067001135,
        0.040716568940254626,
        -0.06311960582052642,
        -0.14701515717841507,
        -0.012813943728377313,
        0.00431181368571859,
        -0.028706004307930667,
        0.05539619667499703,
        -0.15244535872936563,
        0.07195621607674178,
        0.14250998703296663,
        -0.14566322885656788,
        0.09489391892310063,
        0.1204846973478045,
        -0.02418987827190966,
        0.009499601976448937,
        0.013642990342831063
      ],
      [
        -0.16786438401728568,
        0.1479242347361409,
